3.801528364419937134e-02
9.269831702113151550e-03
-1.441645342856645584e-02
6.378671620041131973e-03
1.109287235885858536e-02
-1.795284636318683624e-02
-1.529938634485006332e-02
-7.257248740643262863e-03
-1.872930303215980530e-02
-1.558898831717669964e-03
-1.048099026083946228e-01
3.948041796684265137e-02
1.057325676083564758e-02
3.361158818006515503e-02
1.471898704767227173e-02
3.668383462354540825e-03
-1.224434934556484222e-03
2.990426495671272278e-02
-2.222226932644844055e-02
8.744167163968086243e-03
4.028388299047946930e-03
5.324397236108779907e-02
-8.477697847411036491e-04
1.905786432325839996e-02
5.200534313917160034e-02
4.033990576863288879e-02
2.901775203645229340e-02
-1.513674110174179077e-02
-9.616808034479618073e-03
3.284684196114540100e-02
6.360977143049240112e-02
-9.914572583511471748e-04
-1.745604537427425385e-02
-1.526160538196563721e-02
5.572571232914924622e-02
-3.099536523222923279e-02
-1.606099493801593781e-02
6.629089359194040298e-03
-6.197185255587100983e-03
8.226078934967517853e-03
6.497308611869812012e-02
1.922861114144325256e-02
1.015705149620771408e-02
-1.132838428020477295e-02
-4.952603019773960114e-03
2.723254077136516571e-02
-2.666514599695801735e-03
3.476602211594581604e-02
2.314093895256519318e-02
-6.518266163766384125e-03
-6.024438887834548950e-02
-1.168159185908734798e-03
3.808293957263231277e-03
-3.790440503507852554e-03
2.328758500516414642e-02
-2.082815766334533691e-02
-3.469659760594367981e-02
9.241285920143127441e-02
3.363072499632835388e-02
-4.855628125369548798e-03
-2.204753924161195755e-03
2.058651484549045563e-02
4.357450827956199646e-02
3.008133172988891602e-01
2.167217899113893509e-03
-3.909501829184591770e-04
6.679206155240535736e-03
-2.604627283290028572e-03
-5.335938185453414917e-03
2.725964784622192383e-01
1.336074061691761017e-02
1.649862155318260193e-02
2.149246865883469582e-03
8.674647659063339233e-02
4.896345548331737518e-03
2.915433607995510101e-03
4.360341653227806091e-02
3.048999048769474030e-02
-9.822934865951538086e-03
-4.361491650342941284e-03
-6.529566831886768341e-03
3.170777112245559692e-03
5.527091212570667267e-03
-3.255061339586973190e-03
6.928162276744842529e-02
-9.329010546207427979e-02
1.857819780707359314e-02
-1.489108894020318985e-02
-3.504455834627151489e-02
9.512918442487716675e-02
-1.115929428488016129e-02
-3.634419525042176247e-03
4.056155681610107422e-03
-1.534847542643547058e-02
2.792221494019031525e-02
-2.573526278138160706e-02
-1.054228842258453369e-02
1.632193662226200104e-02
3.851277381181716919e-02
-1.206569466739892960e-02
1.002428770065307617e+00
1.006287813186645508e+00
9.743022322654724121e-01
9.948378205299377441e-01
9.968292713165283203e-01
9.974106550216674805e-01
9.863804578781127930e-01
9.785806536674499512e-01
9.758676290512084961e-01
9.951744675636291504e-01
1.046242356300354004e+00
1.039197802543640137e+00
1.004482626914978027e+00
1.004258275032043457e+00
9.898740649223327637e-01
1.006585121154785156e+00
1.019693493843078613e+00
1.006709814071655273e+00
1.014874339103698730e+00
1.029136300086975098e+00
1.007563829421997070e+00
1.005854368209838867e+00
9.878372550010681152e-01
1.013096928596496582e+00
1.046581268310546875e+00
1.035045862197875977e+00
1.023717284202575684e+00
1.003605961799621582e+00
9.583197832107543945e-01
1.043722033500671387e+00
1.001296162605285645e+00
9.860422015190124512e-01
9.857499003410339355e-01
1.031318187713623047e+00
9.997719526290893555e-01
9.679859280586242676e-01
1.003621339797973633e+00
1.009517669677734375e+00
1.023852109909057617e+00
9.568190574645996094e-01
1.035988926887512207e+00
9.904744625091552734e-01
9.956202507019042969e-01
1.023626446723937988e+00
9.849231243133544922e-01
1.023642778396606445e+00
9.867854118347167969e-01
9.964584708213806152e-01
1.003291606903076172e+00
1.029672622680664062e+00
9.400374293327331543e-01
9.968533515930175781e-01
1.006538033485412598e+00
9.922553896903991699e-01
1.004153013229370117e+00
9.876177310943603516e-01
9.591364860534667969e-01
1.052625179290771484e+00
9.945275187492370605e-01
1.004380345344543457e+00
9.742529392242431641e-01
9.864808917045593262e-01
1.048739671707153320e+00
1.085292100906372070e+00
1.003028869628906250e+00
1.036959528923034668e+00
1.000393986701965332e+00
9.915806651115417480e-01
9.919553399085998535e-01
1.041365265846252441e+00
9.777883887290954590e-01
9.881260991096496582e-01
9.773321747779846191e-01
1.035376071929931641e+00
9.926615953445434570e-01
9.890403747558593750e-01
1.003948926925659180e+00
1.073456048965454102e+00
1.059033155441284180e+00
9.848992228507995605e-01
9.979388117790222168e-01
9.554026722908020020e-01
9.917991161346435547e-01
9.796457290649414062e-01
1.047964215278625488e+00
9.452710151672363281e-01
1.064227938652038574e+00
9.940186142921447754e-01
9.549574851989746094e-01
1.053195238113403320e+00
9.883044362068176270e-01
9.595113396644592285e-01
1.004181623458862305e+00
1.027555227279663086e+00
1.035212397575378418e+00
9.714692831039428711e-01
9.828100800514221191e-01
1.012876987457275391e+00
1.004129886627197266e+00
9.768229126930236816e-01
3.938560932874679565e-02
1.199796982109546661e-02
-1.445196289569139481e-02
3.091792576014995575e-03
6.602564826607704163e-03
-6.557893007993698120e-03
-2.184478379786014557e-02
-5.325071047991514206e-03
-1.532639190554618835e-02
9.300964884459972382e-03
-1.268887370824813843e-01
2.818834967911243439e-02
1.649139262735843658e-02
4.836721718311309814e-02
2.001523785293102264e-02
1.335879415273666382e-02
1.088149193674325943e-02
4.851923882961273193e-02
-1.434329338371753693e-02
8.146644569933414459e-03
1.659169793128967285e-02
4.841593280434608459e-02
-2.298444742336869240e-03
2.594331838190555573e-02
6.042593717575073242e-02
4.124597460031509399e-02
3.422928601503372192e-02
8.613996207714080811e-03
-8.215913549065589905e-03
3.807947039604187012e-02
5.664657056331634521e-02
-2.250407356768846512e-03
-1.432618126273155212e-02
-2.097425796091556549e-02
5.373807623982429504e-02
-3.185467422008514404e-02
9.442606009542942047e-03
6.824119191151112318e-05
3.954671788960695267e-03
-4.770178813487291336e-03
6.321424245834350586e-02
1.320007164031267166e-02
2.017528563737869263e-02
1.000953186303377151e-02
-1.441678404808044434e-02
1.802615821361541748e-02
-1.657673530280590057e-02
3.587435558438301086e-02
1.381818670779466629e-02
-1.637501176446676254e-03
-7.019838690757751465e-02
-2.919272752478718758e-03
2.728867530822753906e-02
5.263525992631912231e-03
1.780841313302516937e-02
-1.206267252564430237e-02
-4.853595420718193054e-02
9.868368506431579590e-02
4.536865651607513428e-02
-1.192031521350145340e-02
-6.939105223864316940e-03
2.986446022987365723e-02
4.099725559353828430e-02
2.946650683879852295e-01
1.326815318316221237e-02
-4.331467673182487488e-03
4.389502573758363724e-03
-1.919018453918397427e-03
1.579445786774158478e-02
2.628493010997772217e-01
-1.488620415329933167e-02
7.550229318439960480e-03
-4.489494021981954575e-03
9.196935594081878662e-02
7.732460275292396545e-03
-4.700341261923313141e-03
4.349773749709129333e-02
3.496849164366722107e-02
-4.066837579011917114e-02
-3.083831164985895157e-03
6.018546409904956818e-03
-1.136572379618883133e-02
2.684386214241385460e-03
-6.834429688751697540e-03
7.690780609846115112e-02
-8.693879097700119019e-02
1.664067618548870087e-02
-6.071832496672868729e-03
-2.733332663774490356e-02
1.038091704249382019e-01
-1.461414340883493423e-02
-1.253889687359333038e-02
-6.685789674520492554e-03
5.897148512303829193e-03
3.318287432193756104e-02
-4.866979550570249557e-03
-2.242895215749740601e-02
5.051940679550170898e-03
3.545168414711952209e-02
-8.277826942503452301e-03
-3.427796810865402222e-02
1.872005499899387360e-02
-5.361801758408546448e-02
-4.018900915980339050e-02
-4.352861549705266953e-03
-7.231985218822956085e-03
-1.512455660849809647e-02
-2.375783585011959076e-02
-6.251812726259231567e-02
-4.371005669236183167e-02
-6.638767570257186890e-02
-2.585140056908130646e-02
1.780709624290466309e-02
-4.383127763867378235e-02
-2.617399580776691437e-02
-1.087549701333045959e-02
-3.015250433236360550e-03
-3.797725215554237366e-02
-3.897695336490869522e-03
-7.532086968421936035e-02
-2.074500732123851776e-02
-1.704936474561691284e-02
-3.194697573781013489e-02
-3.896539285778999329e-02
-6.966416537761688232e-02
-2.298052050173282623e-02
-6.992908567190170288e-02
-7.435523439198732376e-03
-5.328814685344696045e-02
-5.570463836193084717e-02
-3.075117617845535278e-02
-7.753243297338485718e-02
-6.800922751426696777e-02
-4.081874794792383909e-04
-2.780010364949703217e-02
-6.532174348831176758e-02
-1.646986417472362518e-02
-2.253536880016326904e-02
-4.694459494203329086e-03
-2.310062199831008911e-02
-9.877797216176986694e-03
-2.300984412431716919e-02
-4.613813757896423340e-02
5.085793789476156235e-03
-1.743322983384132385e-02
-6.331260502338409424e-02
-1.829839497804641724e-02
-3.124872967600822449e-02
-1.266823732294142246e-03
-1.389463804662227631e-02
-4.542677197605371475e-03
-1.431788504123687744e-02
-2.243215404450893402e-02
-7.048457115888595581e-02
1.067701354622840881e-02
3.828509151935577393e-02
-4.412142559885978699e-02
-2.900934964418411255e-02
-5.421599745750427246e-02
-2.105352841317653656e-02
-4.890774935483932495e-02
-9.913678281009197235e-03
-6.457293778657913208e-02
-1.255064643919467926e-02
-2.161415666341781616e-02
-4.592940956354141235e-02
-2.425946667790412903e-02
-3.325100988149642944e-03
-1.614913903176784515e-02
-2.367142587900161743e-02
-5.021915212273597717e-02
-4.781061410903930664e-02
9.314999333582818508e-04
-1.291891280561685562e-02
-1.151540316641330719e-02
2.880198694765567780e-02
-2.163417823612689972e-02
-1.778756082057952881e-02
5.222812667489051819e-02
-4.671242088079452515e-02
-6.803647428750991821e-02
-4.835490137338638306e-02
-1.286017056554555893e-02
-1.755683310329914093e-02
-1.654333621263504028e-02
-3.589291870594024658e-02
-2.367449691519141197e-03
-1.445169001817703247e-02
-6.497438251972198486e-02
-2.571889571845531464e-02
-4.173029586672782898e-02
-1.303178351372480392e-02
3.428159747272729874e-03
-7.279458921402692795e-03
-5.230692774057388306e-02
-2.758705429732799530e-02
-2.068396285176277161e-02
-1.495702564716339111e-02
-4.509934037923812866e-02
-4.022099077701568604e-02