6.210464239120483398e-02
2.420755103230476379e-02
6.341101229190826416e-02
1.540257688611745834e-02
-1.761998981237411499e-02
5.155952647328376770e-02
2.716889418661594391e-02
8.139684796333312988e-02
4.270590469241142273e-02
2.844500914216041565e-02
-1.182407606393098831e-02
3.325800970196723938e-02
6.376001983880996704e-02
1.621396839618682861e-02
6.529949605464935303e-02
7.181685417890548706e-02
-1.818809658288955688e-03
1.524915080517530441e-02
-1.493344665504992008e-03
7.244569808244705200e-02
3.226467221975326538e-02
5.713786929845809937e-02
5.087492242455482483e-02
4.403768852353096008e-02
2.678087726235389709e-02
-8.869601041078567505e-02
8.546213805675506592e-02
2.228510379791259766e-02
6.823167204856872559e-02
2.159735746681690216e-02
3.187874332070350647e-02
7.236520200967788696e-02
5.405706912279129028e-02
5.615375563502311707e-02
2.621046081185340881e-02
5.247463285923004150e-02
1.039344593882560730e-01
2.252299897372722626e-02
3.980307653546333313e-02
1.718642748892307281e-02
1.670190133154392242e-02
6.740129739046096802e-02
1.626162230968475342e-02
3.031369298696517944e-02
2.796379663050174713e-02
2.233144454658031464e-02
5.900290235877037048e-02
2.019569464027881622e-02
-1.638972945511341095e-02
-2.382427453994750977e-02
9.805120825767517090e-01
1.023662209510803223e+00
1.006832718849182129e+00
1.015656590461730957e+00
9.721741080284118652e-01
1.018986940383911133e+00
1.042701125144958496e+00
9.789398312568664551e-01
9.752885699272155762e-01
1.030581593513488770e+00
9.624435305595397949e-01
1.047670960426330566e+00
9.821594357490539551e-01
1.016600012779235840e+00
1.013124346733093262e+00
1.019448995590209961e+00
9.759384393692016602e-01
1.015580296516418457e+00
9.748377799987792969e-01
9.824082851409912109e-01
9.776849746704101562e-01
1.008372545242309570e+00
1.049853682518005371e+00
1.006391525268554688e+00
1.028449892997741699e+00
9.284609556198120117e-01
1.022962331771850586e+00
1.023223638534545898e+00
1.042376875877380371e+00
1.021333694458007812e+00
1.035525083541870117e+00
1.057496666908264160e+00
1.038145184516906738e+00
1.014336824417114258e+00
1.033111810684204102e+00
1.005354046821594238e+00
1.032507300376892090e+00
1.024438261985778809e+00
9.151628017425537109e-01
9.818940758705139160e-01
1.017645239830017090e+00
9.897091984748840332e-01
1.016803622245788574e+00
1.034547328948974609e+00
1.031086564064025879e+00
1.023315668106079102e+00
1.018497943878173828e+00
1.022238612174987793e+00
9.596365094184875488e-01
9.687999486923217773e-01
4.913397133350372314e-02
2.654649317264556885e-02
4.393875226378440857e-02
1.541500724852085114e-02
-1.265970058739185333e-02
4.924145340919494629e-02
2.700052969157695770e-02
4.297311231493949890e-02
4.990098252892494202e-02
2.588022686541080475e-02
-2.061786130070686340e-02
2.966495230793952942e-02
6.291336566209793091e-02
1.615939475595951080e-02
5.428752675652503967e-02
6.827381253242492676e-02
-1.311534084379673004e-02
1.524120382964611053e-02
-1.995415426790714264e-02
4.729624465107917786e-02
3.893481567502021790e-02
8.273629844188690186e-02
5.037073418498039246e-02
4.753172397613525391e-02
2.681630849838256836e-02
-7.541449368000030518e-02
8.452598750591278076e-02
1.718449406325817108e-02
6.336150318384170532e-02
2.043569274246692657e-02
2.906882949173450470e-02
7.734278589487075806e-02
5.300906300544738770e-02
4.967400804162025452e-02
3.036933019757270813e-02
5.147217214107513428e-02
9.737059473991394043e-02
2.253223210573196411e-02
2.065631374716758728e-02
2.506005205214023590e-02
1.668184995651245117e-02
6.290788203477859497e-02
1.622591726481914520e-02
2.938212268054485321e-02
2.865723334252834320e-02
2.184545248746871948e-02
7.053788006305694580e-02
1.871665008366107941e-02
-1.846631243824958801e-02
-1.764095388352870941e-02
-1.735639199614524841e-02
-4.849423840641975403e-02
-4.444550350308418274e-02
-5.015564337372779846e-02
-3.295806050300598145e-02
-3.920711949467658997e-02
-3.572643920779228210e-02
4.038002341985702515e-03
-4.787068441510200500e-02
-2.152574434876441956e-02
-2.798781357705593109e-02
-3.032649401575326920e-03
-1.483283285051584244e-02
-5.553346127271652222e-02
-4.001796618103981018e-02
-4.266219586133956909e-02
-1.562742888927459717e-02
-5.625128000974655151e-02
-8.792707696557044983e-03
-3.001712635159492493e-02
-3.554996475577354431e-02
-2.021803893148899078e-02
-2.956907637417316437e-02
-4.974704980850219727e-02
-1.050909794867038727e-02
-5.605522170662879944e-02
-3.000731021165847778e-02
-3.212060779333114624e-02
-1.080200262367725372e-02
-9.999817237257957458e-03
-1.351475995033979416e-02
-2.257798798382282257e-02
-4.123341664671897888e-02
-4.060471896082162857e-03
-1.662530563771724701e-02
-4.456566274166107178e-02
-3.071543760597705841e-02
-1.121096033602952957e-02
-3.104248084127902985e-02
-1.906197518110275269e-02
-4.846473783254623413e-02
-1.380346994847059250e-02
-4.663393273949623108e-02
-1.757284998893737793e-02
-1.426881086081266403e-02
-5.170756950974464417e-03
-2.935368195176124573e-02
-3.600532934069633484e-02
-3.222505003213882446e-02
-4.036894068121910095e-02