9.453526698052883148e-03
-1.353038009256124496e-02
-3.522029519081115723e-02
-5.484916735440492630e-03
-2.435165271162986755e-02
4.427458345890045166e-02
-2.541823126375675201e-02
-2.408203110098838806e-02
3.186164051294326782e-02
-2.857379848137497902e-03
3.913484886288642883e-02
6.522540748119354248e-02
-1.575504988431930542e-02
-2.750614657998085022e-02
-3.020678646862506866e-02
-4.985834006220102310e-03
-5.870100110769271851e-03
-2.647921442985534668e-02
-7.281143683940172195e-03
-2.907221019268035889e-02
-4.810573998838663101e-03
-5.346792284399271011e-03
-2.011470682919025421e-02
-2.517858892679214478e-02
-4.918467998504638672e-02
4.146663472056388855e-02
-2.388906106352806091e-02
3.427898511290550232e-02
-4.079517722129821777e-02
5.214117467403411865e-02
2.559432387351989746e-02
-2.396340109407901764e-02
-8.582468330860137939e-02
8.622939931228756905e-04
3.717954829335212708e-02
-2.885293774306774139e-02
4.607859253883361816e-02
4.966099280864000320e-03
4.580612108111381531e-02
3.987729921936988831e-02
-2.828446216881275177e-03
2.205400168895721436e-02
-2.923571690917015076e-02
-1.058765314519405365e-02
-7.162572583183646202e-04
-5.339304357767105103e-02
4.714712966233491898e-03
2.022560313344001770e-02
-2.558753825724124908e-03
5.485789384692907333e-03
1.273557990789413452e-01
-1.341048255562782288e-02
1.664640149101614952e-03
-5.643331259489059448e-02
-9.540479630231857300e-03
-3.498127683997154236e-02
-3.324630483984947205e-02
-5.442185327410697937e-02
-2.393054403364658356e-02
-5.402429960668087006e-04
-4.516194015741348267e-02
1.010825391858816147e-02
3.948966786265373230e-02
-9.644118696451187134e-02
-1.574811153113842010e-02
1.246438398957252502e-01
-3.627519588917493820e-03
-6.364389788359403610e-03
-2.382349222898483276e-02
4.549815133213996887e-02
1.994502171874046326e-02
-1.936631277203559875e-02
1.133054420351982117e-01
-5.754978582262992859e-02
2.792711602523922920e-04
-1.493583340197801590e-02
2.399635501205921173e-02
9.472033008933067322e-03
2.819786779582500458e-02
-4.650285001844167709e-03
-4.547929018735885620e-02
-6.072668358683586121e-02
5.186116322875022888e-02
-2.734925039112567902e-02
1.796485856175422668e-02
-4.011870548129081726e-02
4.259293526411056519e-02
-3.085206076502799988e-02
-4.716921597719192505e-02
-2.456307876855134964e-03
-9.546462446451187134e-03
-5.402966402471065521e-03
4.034197190776467323e-04
-2.506320923566818237e-02
4.931062087416648865e-02
1.884444430470466614e-02
-1.993526332080364227e-02
-7.883156649768352509e-03
1.458589546382427216e-02
-1.864405721426010132e-02
9.820802211761474609e-01
9.938354492187500000e-01
9.657040834426879883e-01
9.828745126724243164e-01
9.770752787590026855e-01
1.049935698509216309e+00
9.788019657135009766e-01
9.651413559913635254e-01
1.039069771766662598e+00
9.868770241737365723e-01
1.047852635383605957e+00
1.044041275978088379e+00
9.854021072387695312e-01
9.730771183967590332e-01
9.668017029762268066e-01
9.880953431129455566e-01
9.972825646400451660e-01
9.760741591453552246e-01
9.959123730659484863e-01
9.652174115180969238e-01
9.891978502273559570e-01
9.782508611679077148e-01
9.768534898757934570e-01
9.940023422241210938e-01
9.609231948852539062e-01
9.954435825347900391e-01
9.650259017944335938e-01
1.063548922538757324e+00
9.465878605842590332e-01
1.033769488334655762e+00
9.816298484802246094e-01
9.923943281173706055e-01
9.461556077003479004e-01
1.027681589126586914e+00
9.853580594062805176e-01
9.643629789352416992e-01
1.046791911125183105e+00
9.951629638671875000e-01
1.064194679260253906e+00
1.026282548904418945e+00
9.958408474922180176e-01
9.926131963729858398e-01
9.731482863426208496e-01
1.007902264595031738e+00
9.868163466453552246e-01
9.408095479011535645e-01
9.856635928153991699e-01
9.946923255920410156e-01
9.798859357833862305e-01
9.996129274368286133e-01
1.071316838264465332e+00
9.864679574966430664e-01
9.926754832267761230e-01
9.588097333908081055e-01
9.837628006935119629e-01
9.816150665283203125e-01
9.621444344520568848e-01
9.585965871810913086e-01
9.681563377380371094e-01
1.000352621078491211e+00
9.474791288375854492e-01
9.893839955329895020e-01
1.048667669296264648e+00
9.393181204795837402e-01
9.791434407234191895e-01
1.039773225784301758e+00
9.856635928153991699e-01
9.880674481391906738e-01
9.884189367294311523e-01
1.036233663558959961e+00
9.883397817611694336e-01
9.646929502487182617e-01
1.050594091415405273e+00
9.354447126388549805e-01
9.904029965400695801e-01
9.817993044853210449e-01
9.919099211692810059e-01
1.052379727363586426e+00
1.064232826232910156e+00
9.747413396835327148e-01
9.590843319892883301e-01
9.383219480514526367e-01
1.058793663978576660e+00
9.625068902969360352e-01
9.864606857299804688e-01
9.489921927452087402e-01
1.057330489158630371e+00
9.824215769767761230e-01
9.516475200653076172e-01
9.832946062088012695e-01
9.815715551376342773e-01
9.706581830978393555e-01
9.964402318000793457e-01
9.988114833831787109e-01
1.043601036071777344e+00
1.043163537979125977e+00
9.762724041938781738e-01
9.953695535659790039e-01
9.780045151710510254e-01
9.743552207946777344e-01
1.069447956979274750e-02
-9.528961032629013062e-03
-3.363350406289100647e-02
-1.112245302647352219e-02
-2.941966243088245392e-02
5.536908656358718872e-02
-2.921181730926036835e-02
-2.267231792211532593e-02
3.194959461688995361e-02
9.721017442643642426e-03
3.997714817523956299e-02
5.138670653104782104e-02
-9.623853489756584167e-03
-1.344491355121135712e-02
-2.777928300201892853e-02
5.339951720088720322e-03
2.755413996055722237e-03
-9.309523738920688629e-03
1.822073536459356546e-04
-3.135568648576736450e-02
4.687528125941753387e-03
-7.421429734677076340e-03
-2.127766609191894531e-02
-1.632273569703102112e-02
-4.479794949293136597e-02
4.223269224166870117e-02
-1.741339825093746185e-02
5.515870079398155212e-02
-3.742159530520439148e-02
5.859325081110000610e-02
1.816982403397560120e-02
-2.195186167955398560e-02
-8.218534290790557861e-02
-8.529648184776306152e-03
3.316855430603027344e-02
-3.133929520845413208e-02
6.894712895154953003e-02
-2.278101397678256035e-03
4.886670410633087158e-02
3.198241814970970154e-02
-3.298065392300486565e-03
1.622449234127998352e-02
-2.127840369939804077e-02
1.085844356566667557e-02
-9.126282297074794769e-03
-6.155974045395851135e-02
-8.651770651340484619e-03
2.265075221657752991e-02
-1.274930406361818314e-02
7.935306057333946228e-03
1.212539151310920715e-01
-1.740022934973239899e-02
2.351093292236328125e-02
-4.946389049291610718e-02
-1.703422516584396362e-02
-2.831816859543323517e-02
-4.319847002625465393e-02
-5.344761908054351807e-02
-1.195670105516910553e-02
-7.696332875639200211e-03
-5.023764446377754211e-02
2.066875435411930084e-02
4.187571257352828979e-02
-1.031236127018928528e-01
-4.733073525130748749e-03
1.337130516767501831e-01
-6.827496923506259918e-03
-8.801680989563465118e-03
-4.978175275027751923e-03
4.549770802259445190e-02
-1.500063948333263397e-02
-2.825892716646194458e-02
1.001179963350296021e-01
-5.519109964370727539e-02
3.182064741849899292e-03
-2.173104137182235718e-02
2.708069421350955963e-02
1.189042162150144577e-02
2.386470732744783163e-04
-1.275728689506649971e-03
-2.985042519867420197e-02
-6.834655255079269409e-02
4.944648593664169312e-02
-2.860258147120475769e-02
2.183201536536216736e-02
-4.082608595490455627e-02
3.724566474556922913e-02
-2.248579636216163635e-02
-3.648299723863601685e-02
3.532545175403356552e-03
-1.021669246256351471e-02
-1.214458234608173370e-02
-8.886809460818767548e-03
-3.574593225494027138e-03
5.634633079171180725e-02
3.325350582599639893e-02
-3.062428906559944153e-02
-1.804844290018081665e-02
9.964392520487308502e-03
-1.594766601920127869e-02
-4.810259863734245300e-02
8.549167774617671967e-03
-4.999792203307151794e-02
-2.890099212527275085e-02
-2.006937749683856964e-02
-6.802420597523450851e-03
-1.138704642653465271e-02
-1.730425283312797546e-02
-5.599484220147132874e-02
-3.366142138838768005e-02
-5.553937703371047974e-02
-1.119513995945453644e-02
7.705748546868562698e-03
-5.707464367151260376e-02
-4.712276533246040344e-02
-1.249089650809764862e-02
6.649490911513566971e-03
-5.902478098869323730e-02
4.782984964549541473e-03
-6.803037971258163452e-02
-2.080963738262653351e-02
-3.812080994248390198e-02
-3.776674717664718628e-02
-4.439888522028923035e-02
-9.203832596540451050e-02
-7.579947821795940399e-03
-6.157032772898674011e-02
-1.506839040666818619e-02
-6.455941498279571533e-02
-3.881742805242538452e-02
-4.696298018097877502e-02
-6.667444854974746704e-02
-5.739061906933784485e-02
1.353711448609828949e-02
-3.392255678772926331e-02
-4.454944282770156860e-02
-8.624123409390449524e-03
-1.071043312549591064e-02
-6.566624157130718231e-03
-4.481468722224235535e-02
1.288861222565174103e-02
-5.280260927975177765e-03
-5.371479317545890808e-02
1.859733834862709045e-02
3.813249291852116585e-03
-6.476074457168579102e-02
-7.695639505982398987e-04
-3.690093755722045898e-02
-1.340727508068084717e-02
-1.990178041160106659e-02
5.463543534278869629e-02
-1.215031649917364120e-02
-6.594335660338401794e-03
-7.625068724155426025e-02
-7.175696548074483871e-03
2.734055928885936737e-02
-4.705360531806945801e-02
-8.389861136674880981e-02
-4.944150894880294800e-02
-4.277681873645633459e-04
-5.527314916253089905e-02
-1.102023012936115265e-02
-4.686114937067031860e-02
-6.432557106018066406e-02
-2.140180207788944244e-02
-3.050845116376876831e-02
-2.559545822441577911e-02
6.425628904253244400e-03
5.744489375501871109e-03
-4.260472208261489868e-02
-3.333718329668045044e-02
-4.946069791913032532e-02
1.085019577294588089e-02
-7.547219842672348022e-02
8.179804310202598572e-03
2.080938220024108887e-02
-2.717977575957775116e-02
-1.460395846515893936e-02
-6.709747016429901123e-02
-3.022466972470283508e-02
-4.714345186948776245e-02
-7.275789976119995117e-02
-1.293385680764913559e-02
-3.856842219829559326e-02
-3.591882809996604919e-02
-3.738618269562721252e-02
1.160990633070468903e-02
-2.084720134735107422e-02
-4.674177616834640503e-02
-2.504298090934753418e-02
-1.711231842637062073e-02
-3.672976046800613403e-02
2.034277468919754028e-02
-2.025313151534646749e-04
-3.111845999956130981e-02
-1.573531143367290497e-02
-1.645748876035213470e-02
-2.415916696190834045e-02
-4.629833623766899109e-02
-2.731464244425296783e-02
