-5.701138288713991642e-04
2.537756040692329407e-02
4.034619778394699097e-02
1.634474471211433411e-02
5.259726941585540771e-02
-3.497530892491340637e-02
-1.111968420445919037e-03
3.425732254981994629e-02
4.060655459761619568e-02
2.995739132165908813e-02
-4.012952372431755066e-02
2.142122760415077209e-02
3.019187971949577332e-02
1.814405061304569244e-02
2.568918047472834587e-03
1.109930220991373062e-02
-1.701608859002590179e-02
1.530561316758394241e-02
7.609668374061584473e-02
-3.535487875342369080e-02
-1.762158982455730438e-02
-2.405248582363128662e-02
-4.629381746053695679e-02
1.260165963321924210e-02
2.748728916049003601e-02
8.859445154666900635e-02
5.908505991101264954e-02
3.616242855787277222e-02
-2.242595516145229340e-02
2.287181280553340912e-02
2.487916313111782074e-02
3.286068141460418701e-02
2.708199620246887207e-02
-2.211248874664306641e-02
4.423373565077781677e-02
5.637059733271598816e-02
5.119099467992782593e-02
-2.577530033886432648e-02
1.532708555459976196e-01
-3.211668506264686584e-02
1.443821042776107788e-01
-2.241847664117813110e-02
2.864724583923816681e-02
3.461996465921401978e-02
2.903966791927814484e-02
4.378912970423698425e-02
5.445875972509384155e-02
6.337974220514297485e-02
6.811753660440444946e-02
-4.143624007701873779e-02
9.358134269714355469e-01
1.021485328674316406e+00
9.776687622070312500e-01
1.018830180168151855e+00
1.047847867012023926e+00
9.605326652526855469e-01
9.309343099594116211e-01
9.325044751167297363e-01
9.778875708580017090e-01
1.031841039657592773e+00
9.386693835258483887e-01
9.714630246162414551e-01
1.038173913955688477e+00
1.019458770751953125e+00
9.530904889106750488e-01
1.011973857879638672e+00
9.603396654129028320e-01
1.015619158744812012e+00
1.032651662826538086e+00
9.500402212142944336e-01
9.708063602447509766e-01
9.685327410697937012e-01
9.582951664924621582e-01
9.851888418197631836e-01
1.029371857643127441e+00
1.018818259239196777e+00
1.051394224166870117e+00
1.025139570236206055e+00
9.501569271087646484e-01
1.022634506225585938e+00
9.071884751319885254e-01
1.042711377143859863e+00
1.024824380874633789e+00
9.590003490447998047e-01
9.712430238723754883e-01
9.691416025161743164e-01
9.732320308685302734e-01
9.097864627838134766e-01
1.038170337677001953e+00
9.615904688835144043e-01
1.034898757934570312e+00
9.707403182983398438e-01
1.032901287078857422e+00
1.040931344032287598e+00
1.032258152961730957e+00
1.045465350151062012e+00
1.050546169281005859e+00
1.036871790885925293e+00
9.895874261856079102e-01
9.452805519104003906e-01
-1.045632362365722656e-02
3.001345135271549225e-02
2.038069255650043488e-02
1.617785170674324036e-02
5.910599604249000549e-02
-4.084001481533050537e-02
5.595725029706954956e-03
1.700131595134735107e-02
5.370907112956047058e-02
2.709598653018474579e-02
-4.908971861004829407e-02
1.288540847599506378e-02
3.072512708604335785e-02
1.789380982518196106e-02
-1.601945841684937477e-03
1.114795636385679245e-02
-2.567807957530021667e-02
1.529565732926130295e-02
6.065110489726066589e-02
-4.702271521091461182e-02
-1.074789650738239288e-02
-1.858989940956234932e-03
-4.537729918956756592e-02
1.605562679469585419e-02
2.741703763604164124e-02
1.141951158642768860e-01
5.627136677503585815e-02
3.023135475814342499e-02
-3.269180282950401306e-02
2.118241600692272186e-02
-9.558629244565963745e-03
3.520209342241287231e-02
2.599767595529556274e-02
-2.831188961863517761e-02
2.015950717031955719e-02
4.516302794218063354e-02
7.258457690477371216e-02
3.584450110793113708e-02
1.552526056766510010e-01
-2.777770906686782837e-02
1.361842155456542969e-01
-3.092687949538230896e-02
2.731625922024250031e-02
3.322713822126388550e-02
2.994318865239620209e-02
4.402180761098861694e-02
6.433451920747756958e-02
6.410530954599380493e-02
6.999690085649490356e-02
-3.601526096463203430e-02
-2.808610908687114716e-02
-5.536176636815071106e-02
-5.957576259970664978e-02
-1.524089742451906204e-02
-6.108706071972846985e-02
-3.649284318089485168e-02
-2.999022603034973145e-02
-2.408934291452169418e-03
-3.238689526915550232e-02
-1.222910080105066299e-02
-3.472745418548583984e-02
-2.869689837098121643e-02
-3.456817939877510071e-02
-5.164380371570587158e-02
-5.353748053312301636e-02
-4.861117154359817505e-02
-1.499458961188793182e-02
-5.570162832736968994e-02
-3.873908193781971931e-03
-2.805875428020954132e-02
4.489796236157417297e-03
-2.366379834711551666e-02
-2.061974629759788513e-02
5.613089073449373245e-03
-2.073902450501918793e-02
1.519144163466989994e-03
-3.414836153388023376e-02
-2.747292257845401764e-02
9.287053719162940979e-03
-3.246828913688659668e-02
-2.115424908697605133e-02
-1.367741171270608902e-02
-2.749956399202346802e-02
6.015180144459009171e-03
-6.880756001919507980e-03
-3.006303496658802032e-02
-1.654211618006229401e-02
-1.269462332129478455e-02
-1.287446171045303345e-02
-4.143072664737701416e-02
-2.284781821072101593e-02
-1.814549788832664490e-02
-1.347501296550035477e-02
-2.002785354852676392e-02
-3.113147057592868805e-02
-1.178912166506052017e-02
-1.796889305114746094e-02
-2.677243575453758240e-02
-1.489581819623708725e-02
-2.127603441476821899e-02
