0
-1
-3
0
-2
4
-2
-2
3
0
3
6
-1
-2
-3
0
0
-2
0
-2
0
0
-2
-2
-5
4
-2
3
-4
5
2
-2
-8
0
3
-2
4
0
4
4
0
2
-2
-1
0
-5
0
2
0
0
12
-1
0
-5
0
-3
-3
-5
-2
0
-4
1
4
-9
-1
12
0
0
-2
4
2
-1
11
-5
0
-1
2
0
2
0
-4
-6
5
-2
1
-4
4
-3
-4
0
0
0
0
-2
5
1
-2
0
1
-1
100
101
98
100
99
107
99
98
105
100
106
106
100
99
98
100
101
99
101
98
100
99
99
101
98
101
98
108
96
105
100
101
96
104
100
98
106
101
108
104
101
101
99
102
100
95
100
101
99
101
109
100
101
97
100
100
98
97
98
102
96
100
106
95
99
106
100
100
100
105
100
98
107
95
101
100
101
107
108
99
97
95
107
98
100
96
107
100
97
100
100
99
101
101
106
106
99
101
99
99
1
0
-3
-1
-3
5
-2
-2
3
0
4
5
0
-1
-2
0
0
0
0
-3
0
0
-2
-1
-4
4
-1
5
-3
5
1
-2
-8
0
3
-3
7
0
4
3
0
1
-2
1
0
-6
0
2
-1
0
12
-1
2
-5
-1
-2
-4
-5
-1
0
-5
2
4
-10
0
13
0
0
0
4
-1
-2
10
-5
0
-2
2
1
0
0
-3
-6
5
-2
2
-4
3
-2
-3
0
-1
-1
0
0
5
3
-3
-1
1
-1
-4
0
-5
-2
-2
0
-1
-1
-5
-3
-5
-1
0
-5
-4
-1
0
-6
0
-6
-2
-3
-3
-4
-9
0
-6
-1
-6
-3
-4
-6
-5
1
-3
-4
0
-1
0
-4
1
0
-5
1
0
-6
0
-3
-1
-2
5
-1
0
-7
0
2
-4
-8
-5
0
-5
-1
-4
-6
-2
-3
-2
0
0
-4
-3
-5
1
-7
0
2
-2
-1
-6
-3
-4
-7
-1
-3
-3
-3
1
-2
-4
-2
-1
-3
2
0
-3
-1
-1
-2
-4
-2